{
  "schema_version": 1,
  "model_name": "bsm_mlp_residual",
  "features": [
    "log_moneyness",
    "ttm_years",
    "sigma",
    "r",
    "q",
    "is_call",
    "sqrt_ttm",
    "moneyness"
  ],
  "split_info": {
    "n_dates": 1507,
    "train_end_date": "2023-03-14",
    "val_end_date": "2024-02-06",
    "train_ratio": 0.7,
    "val_ratio": 0.15,
    "test_ratio": 0.15000000000000005,
    "counts": {
      "train": 1119894,
      "val": 283238,
      "test": 342256,
      "kept_train": 300000,
      "kept_val": 100000,
      "kept_test": 100000,
      "dropped": 0
    },
    "feature_names": [
      "log_moneyness",
      "ttm_years",
      "sigma",
      "r",
      "q",
      "is_call",
      "sqrt_ttm",
      "moneyness"
    ],
    "feature_mean": [
      0.03600666700229144,
      0.396679795844682,
      0.3787877482551428,
      0.7304385593636546,
      0.02921589039321072,
      0.4999982141166956,
      0.4969321058191021,
      1.0923584542661995
    ],
    "feature_std": [
      0.3152632818399686,
      0.5393725858181105,
      0.2486891610463085,
      0.9208099329720332,
      0.005136692115491699,
      0.5000002232323689,
      0.3869604782901439,
      0.38407131475568884
    ]
  },
  "normalization": {
    "mean": [
      0.03600666700229144,
      0.396679795844682,
      0.3787877482551428,
      0.7304385593636546,
      0.02921589039321072,
      0.4999982141166956,
      0.4969321058191021,
      1.0923584542661995
    ],
    "std": [
      0.3152632818399686,
      0.5393725858181105,
      0.2486891610463085,
      0.9208099329720332,
      0.005136692115491699,
      0.5000002232323689,
      0.3869604782901439,
      0.38407131475568884
    ]
  },
  "model": {
    "residual_model": {
      "kind": "mlp",
      "in_dim": 8,
      "hidden": 24,
      "w1": [
        [
          -1.4216120638803804,
          -0.15795002102793843,
          -0.4063307120158722,
          1.0283125352331828,
          -0.36885237525389025,
          1.70250600222956,
          -1.337119901797976,
          0.21495277073819413
        ],
        [
          1.3525563782331684,
          0.6124619967195033,
          -0.1078993147377433,
          3.2612207528919726,
          -0.37586965189760546,
          4.038519699750405,
          -0.7567141481793249,
          -1.391688175573193
        ],
        [
          3.353879418400287,
          -2.1950411261470997,
          -0.9315009582080207,
          1.346577165587227,
          -0.11950323599177272,
          -0.011217263013400026,
          3.776675926196037,
          -5.300599789929229
        ],
        [
          1.1747576418880643,
          -1.4155327686881038,
          -0.02400548293109549,
          0.8415952780301831,
          -0.5688126430075727,
          0.42186838342909694,
          1.8288625010156783,
          -1.8042221569781496
        ],
        [
          -0.9799820916577525,
          -0.5574964450699291,
          0.0528979927100082,
          -2.971114967056867,
          -0.37283089936870034,
          3.1510318842949117,
          0.13001326891560175,
          -0.12334148466062822
        ],
        [
          -1.362306217906715,
          -0.133654113817961,
          -0.6625308338777575,
          1.8035571765461889,
          -0.39495486044407113,
          0.10554236660401319,
          2.618900912744037,
          -0.447870513115169
        ],
        [
          2.6102123508729216,
          -0.7716286652161591,
          -0.19074297817776123,
          6.338099245995075,
          -0.44072245797685966,
          0.5715846404829906,
          2.4232286155976555,
          -2.0711690371065052
        ],
        [
          -0.5884636560030572,
          -1.4194511493199562,
          -0.06366142225988976,
          0.043940179500483324,
          0.05441490865224879,
          0.10066996757693975,
          0.9930412637114006,
          -1.4355353779215185
        ],
        [
          -0.6648404428334629,
          -1.6741675937505123,
          0.3321999951649674,
          -0.6984677845881807,
          -0.4103384809199301,
          1.359999177581033,
          3.2862880235779217,
          -1.00993035457467
        ],
        [
          -0.10864936491281275,
          -2.125259799331642,
          -0.26529914786551145,
          5.269399901025936,
          -0.7296481833213697,
          -4.223031919024971,
          3.9091582312506876,
          -0.5580470328191819
        ],
        [
          1.1943238703176113,
          -2.205915007936838,
          0.20452162102426283,
          1.9862397640335632,
          0.13174538499684887,
          3.222122791764452,
          4.285007967592463,
          -1.446675810610137
        ],
        [
          1.545645749588962,
          -0.22024191736716495,
          -0.10709986566870945,
          2.7917591276792946,
          -0.2872988709287945,
          0.8864599305648578,
          2.4119489304689354,
          -2.5272265923948085
        ],
        [
          -1.0654646110621264,
          0.19790553297628463,
          0.14500070180374713,
          -5.291034731459598,
          -0.41532623740409286,
          4.792317950167393,
          0.9995753624162262,
          0.10844030052334808
        ],
        [
          -0.04428792712422884,
          -0.4339456097632895,
          -0.2398036396251366,
          0.5119790661423967,
          -0.4028572954450428,
          2.442068410293533,
          -0.7056604278070423,
          -1.0131626269720007
        ],
        [
          -2.465996473294067,
          -2.028629273687927,
          -0.6802532371671027,
          2.1813909643405385,
          -0.2903868951676337,
          -4.585298174236449,
          4.386701163350616,
          0.5890184159645075
        ],
        [
          -0.35908371358349517,
          -2.57897227726942,
          -0.2135143232328571,
          0.4997475979691726,
          -0.28096671286022823,
          -0.08952867693771192,
          1.9091192991440522,
          -1.5221642351836215
        ],
        [
          1.0134892210529665,
          0.5358297391181344,
          -0.027986710441632187,
          0.4331012399914073,
          0.15958909322694026,
          -0.8956717644320478,
          0.002707861605893818,
          -0.6667725186012305
        ],
        [
          0.7785343714266082,
          0.08710664473888399,
          -0.29036239927705126,
          2.408787162023299,
          0.025641589455442114,
          2.924849625308585,
          0.014161325225417812,
          -0.43917885007981683
        ],
        [
          -0.15800276458053852,
          0.43250908137600147,
          -0.05553637515501802,
          -4.779805894910962,
          -0.06484850200971844,
          1.882910264823689,
          0.7068003882004343,
          0.15577992158980375
        ],
        [
          0.3350861488391748,
          -3.603619340821562,
          -0.4641735027764869,
          1.5689550777418388,
          0.37980709659282463,
          1.9705323504332384,
          5.098100162016692,
          -2.4668227477868103
        ],
        [
          2.1525379619471017,
          -2.1869705955710472,
          -0.7778870755975783,
          1.5967612894982963,
          -0.39165563166907646,
          -0.08721195495226695,
          3.4550843737893886,
          -2.1872349443990227
        ],
        [
          -0.09914673611566699,
          -0.6853484379201296,
          0.10795776040430106,
          -4.298770759691293,
          -0.04100222326122617,
          3.8969676064874315,
          1.1487304125406066,
          -0.0025848601288040157
        ],
        [
          2.459310768802952,
          0.7498351493813113,
          0.0664291894832072,
          2.306134915421813,
          0.3925916318615899,
          0.12532413506868595,
          -0.6236572582474611,
          -1.2281731784674184
        ],
        [
          0.40539699769611776,
          -0.09124271583304279,
          -0.049688281703544356,
          0.06242347551905891,
          -0.6129492168064407,
          0.22542987708405898,
          -0.8924072708086391,
          -0.48797996481855854
        ]
      ],
      "b1": [
        0.26906244325738227,
        -4.077447647879222,
        -3.696009872167096,
        -1.3626348612355303,
        -1.028762796862246,
        -0.41798122238529184,
        0.5264642652751558,
        -0.5335873493316271,
        -3.11147214373678,
        -2.986157606660446,
        -4.989561678766195,
        -4.083283294523114,
        0.25417976771941925,
        -1.2597478397941697,
        -8.859499201505303,
        -1.8326858394934673,
        0.2875252918053192,
        -2.685867565393586,
        -5.10402208744834,
        -8.333973777187856,
        -1.4559169496944238,
        -0.7489053987013394,
        -1.6656070925619888,
        0.05340870906403846
      ],
      "w2": [
        -2.4665617637439343,
        6.186790572104675,
        -7.5491987905421665,
        -3.1735343458143648,
        4.4387010865300995,
        2.920089049773966,
        -6.279662077072243,
        1.9232441795976165,
        -4.399676304376889,
        6.654034423083592,
        -6.879735108806688,
        -5.354552431885922,
        -6.62962696729714,
        2.740289895709556,
        10.32624819845263,
        3.4539845131500346,
        1.356384486819161,
        4.181171271551248,
        7.048022359992321,
        -9.765137964435063,
        -4.582802341918714,
        5.79213527231562,
        3.4307306433564912,
        0.9932689239543304
      ],
      "b2": -1.632527168135851
    }
  }
}