{
  "schema_version": 1,
  "model_name": "mlp_direct",
  "features": [
    "log_moneyness",
    "ttm_years",
    "sigma",
    "r",
    "q",
    "is_call",
    "sqrt_ttm",
    "moneyness"
  ],
  "split_info": {
    "n_dates": 1507,
    "train_end_date": "2023-03-14",
    "val_end_date": "2024-02-06",
    "train_ratio": 0.7,
    "val_ratio": 0.15,
    "test_ratio": 0.15000000000000005,
    "counts": {
      "train": 1119894,
      "val": 283238,
      "test": 342256,
      "kept_train": 300000,
      "kept_val": 100000,
      "kept_test": 100000,
      "dropped": 0
    },
    "feature_names": [
      "log_moneyness",
      "ttm_years",
      "sigma",
      "r",
      "q",
      "is_call",
      "sqrt_ttm",
      "moneyness"
    ],
    "feature_mean": [
      0.03600666700229144,
      0.396679795844682,
      0.3787877482551428,
      0.7304385593636546,
      0.02921589039321072,
      0.4999982141166956,
      0.4969321058191021,
      1.0923584542661995
    ],
    "feature_std": [
      0.3152632818399686,
      0.5393725858181105,
      0.2486891610463085,
      0.9208099329720332,
      0.005136692115491699,
      0.5000002232323689,
      0.3869604782901439,
      0.38407131475568884
    ]
  },
  "normalization": {
    "mean": [
      0.03600666700229144,
      0.396679795844682,
      0.3787877482551428,
      0.7304385593636546,
      0.02921589039321072,
      0.4999982141166956,
      0.4969321058191021,
      1.0923584542661995
    ],
    "std": [
      0.3152632818399686,
      0.5393725858181105,
      0.2486891610463085,
      0.9208099329720332,
      0.005136692115491699,
      0.5000002232323689,
      0.3869604782901439,
      0.38407131475568884
    ]
  },
  "model": {
    "kind": "mlp",
    "in_dim": 8,
    "hidden": 24,
    "w1": [
      [
        0.5121435546367574,
        -0.025882276268579744,
        -0.1064358003768938,
        -0.8477374231018052,
        0.17117478810642908,
        4.246004594544671,
        -0.6407644364012958,
        -0.22173833254261566
      ],
      [
        -2.545494981131582,
        -0.12131394905548899,
        -0.016611162863222968,
        -0.08185332724315118,
        -0.01620881933565978,
        -0.14284756880038763,
        -0.07816441674689405,
        -1.7262856582696626
      ],
      [
        1.0958137288768568,
        0.11618534875973423,
        -0.0451685597182939,
        -0.6381074369365872,
        -0.6801011270303211,
        1.7401664479185757,
        0.09333429490879626,
        -0.20987342605676573
      ],
      [
        -0.32017506297532833,
        -0.39307434464781166,
        0.0017192763019180431,
        -1.3693195087062315,
        -0.25217604556860584,
        -0.3113564176505949,
        0.07230180822592461,
        -0.18448294264385623
      ],
      [
        -1.2846067621909292,
        -0.10775025280854528,
        0.19148155752453552,
        -0.033685923417983,
        0.3643177586908038,
        0.035882329335592725,
        1.3818652612056104,
        -0.8334057574946573
      ],
      [
        -2.6368214428897554,
        0.10468526640366786,
        -0.011658401164289104,
        -0.14361515612039755,
        -0.8217443313431843,
        -1.1124518992615837,
        -0.3756674047457219,
        -0.37643984148913373
      ],
      [
        0.3872666879103684,
        -0.048302938146941206,
        -0.19679333930967532,
        0.6665565489592992,
        -1.182000840804149,
        1.4052404012599342,
        -0.11590340449073291,
        -0.13402241506120705
      ],
      [
        -0.9306939069943015,
        -0.03612399003402099,
        0.13068864955151255,
        -0.7415900393214033,
        -1.2250240987120136,
        -1.3969425802616662,
        0.3729209601677981,
        -0.12741324012587713
      ],
      [
        -0.05942187140547579,
        -0.24039590745745715,
        -0.0868398804169005,
        0.8013501806619813,
        -1.4601125096896106,
        1.0058408177729115,
        0.08872610898235413,
        -0.3528960218067607
      ],
      [
        -2.0530757314668446,
        0.26181595563523086,
        0.0021337166593196847,
        -0.20725890136912412,
        -0.5522282137841891,
        -1.9815128365892871,
        -0.042434293140262466,
        -0.41193293264284453
      ],
      [
        0.3380386638337309,
        0.22022235444322458,
        -0.2821854001332887,
        -0.3942337130996056,
        -0.5288792691576425,
        0.9022723496889806,
        -0.25036028376612857,
        0.30815677074607556
      ],
      [
        0.8306819534223026,
        0.38545938320953776,
        0.08340887912111074,
        0.23636372233917208,
        -0.10311057943879677,
        1.7360272793282667,
        0.16644718178207618,
        -0.1880397983791364
      ],
      [
        -1.34377284140894,
        0.2622976351709851,
        -0.009551188349493313,
        -1.2256489864135345,
        0.7750551871387387,
        2.0844757196435757,
        -0.13877260593487875,
        0.4400442236693557
      ],
      [
        0.10171217940092019,
        0.22738478843680282,
        0.566685926053299,
        0.055271784861565795,
        -0.10643685126731618,
        -0.03038568315327332,
        0.06804537658180244,
        0.23946251042837347
      ],
      [
        -1.707240536284832,
        -0.2454780870912472,
        0.2936125816161835,
        -0.07332952515302424,
        -0.13004189791121817,
        -3.2548827781368663,
        0.6452152162082925,
        -0.8504660528773467
      ],
      [
        0.29222563692004605,
        0.10989004638213277,
        0.1966785927187373,
        0.17188691583559834,
        -1.3240348867159062,
        1.1619008816833707,
        -0.23704720877395488,
        0.23690264117001253
      ],
      [
        2.3504402638935744,
        -0.10295672861621531,
        0.2004845939591267,
        -0.10754786938891153,
        0.14534784241340926,
        3.4882781495396737,
        0.6770598523164771,
        -0.652871114562337
      ],
      [
        0.18643330202296451,
        -0.11197493042327344,
        -0.029477952387562567,
        -0.9083089887008933,
        -0.5080223392191333,
        1.3578729427986573,
        0.08559908349247596,
        -0.0712407556172929
      ],
      [
        2.1347057759694263,
        -0.2925310371263188,
        -0.18130290386381026,
        -0.05768482516477009,
        -0.14252364431675157,
        3.2368906052332345,
        -0.07378714541435447,
        -0.5527364148255959
      ],
      [
        -2.7977834476783827,
        -0.012986880943036681,
        -0.26936015179716155,
        -0.06172007602620974,
        -0.23384474736330255,
        -3.43941567999556,
        -0.7221783483887135,
        -0.23114203301319375
      ],
      [
        -1.945239429780228,
        -0.15744474964146377,
        -0.07758883991678063,
        -0.9501427650657823,
        0.7534499611059675,
        2.6765691931053412,
        0.022491430202561523,
        0.8831181074864184
      ],
      [
        -0.06874375122035295,
        0.26359828710544086,
        -0.07692081055520578,
        0.7908004114622517,
        -1.0078371492552975,
        2.419800346790588,
        -0.30132733335465317,
        -1.9901608940872508
      ],
      [
        0.6168767393399939,
        0.3637449998527872,
        -0.23341166326836266,
        0.09436880844377635,
        0.22831991438375193,
        -0.44083107957617124,
        -0.0007883438707044546,
        0.7831922182633289
      ],
      [
        0.6860964346953323,
        0.3331809115530933,
        0.11691032238429391,
        -0.6671434009996475,
        0.0805869727819272,
        -0.18434762448599962,
        0.5903742491462888,
        0.15364029184527134
      ]
    ],
    "b1": [
      0.37646325685648335,
      -0.9603494683930132,
      -2.6313990337524307,
      0.12252737575207633,
      1.1002353423447973,
      -5.083869958889356,
      0.30024476076776985,
      -2.543863396967102,
      0.28415040750408904,
      -3.735130267286658,
      -2.158467360153644,
      -1.0755252321850213,
      0.6171936739745522,
      -0.16104544865318485,
      -2.9040625567933187,
      -2.8789613808060848,
      -2.456386603515907,
      -0.2542330237915009,
      -3.529652312979849,
      -5.01411231840257,
      -0.006952710612262645,
      -0.5538006542238234,
      -0.07930562408689494,
      0.532218920534455
    ],
    "w2": [
      4.179538567254743,
      3.060747687189567,
      3.3012253910712896,
      -1.3811939443931163,
      2.2115449198693153,
      5.7322805742847365,
      1.930824815601177,
      3.2785581992798662,
      -1.8928413482911364,
      4.525423177631751,
      2.384172508404801,
      2.1066234782526276,
      -2.790041196872566,
      -0.6143352314113393,
      4.572935229143549,
      3.314636969666989,
      4.688852705039539,
      1.584968458254728,
      4.964721561833146,
      6.40471989831843,
      -3.4996308658910826,
      -3.3532791930243504,
      -1.1302474025806541,
      1.1487480023672545
    ],
    "b2": 1.672865558982055
  }
}